<?xml version="1.0"?>
<opencv_storage>
<stage1>
  <maxWeakCount>17</maxWeakCount>
  <stageThreshold>-1.2716339826583862e+00</stageThreshold>
  <weakClassifiers>
    <_>
      <internalNodes>
        0 -1 1376888 2.7374885976314545e-02</internalNodes>
      <leafValues>
        -4.0779769420623779e-01 3.6822074651718140e-01</leafValues></_>
    <_>
      <internalNodes>
        0 -1 224508 2.5082077831029892e-02</internalNodes>
      <leafValues>
        1.5922807157039642e-01 -7.2991424798965454e-01</leafValues></_>
    <_>
      <internalNodes>
        0 -1 1271581 -1.4979898929595947e-02</internalNodes>
      <leafValues>
        -9.2350459098815918e-01 9.7816824913024902e-02</leafValues></_>
    <_>
      <internalNodes>
        0 -1 911503 1.6096837818622589e-02</internalNodes>
      <leafValues>
        -1.4352189004421234e-01 6.7578482627868652e-01</leafValues></_>
    <_>
      <internalNodes>
        0 -1 1459399 -1.1027390137314796e-02</internalNodes>
      <leafValues>
        -8.2583492994308472e-01 9.6779987215995789e-02</leafValues></_>
    <_>
      <internalNodes>
        0 -1 1715552 4.2477832175791264e-04</internalNodes>
      <leafValues>
        -2.5168600678443909e-01 4.0902566909790039e-01</leafValues></_>
    <_>
      <internalNodes>
        0 -1 1088087 2.7901031076908112e-02</internalNodes>
      <leafValues>
        1.8074303865432739e-01 -7.4599790573120117e-01</leafValues></_>
    <_>
      <internalNodes>
        0 -1 893413 -2.8328533517196774e-04</internalNodes>
      <leafValues>
        5.0594598054885864e-01 -2.3142081499099731e-01</leafValues></_>
    <_>
      <internalNodes>
        0 -1 1445008 -1.9252790138125420e-02</internalNodes>
      <leafValues>
        -8.3435428142547607e-01 1.5780250728130341e-01</leafValues></_>
    <_>
      <internalNodes>
        0 -1 893413 1.3490499986801296e-04</internalNodes>
      <leafValues>
        -2.1693539619445801e-01 4.1648232936859131e-01</leafValues></_>
    <_>
      <internalNodes>
        0 -1 1609618 -7.2968881577253342e-03</internalNodes>
      <leafValues>
        -7.9320621490478516e-01 9.7715713083744049e-02</leafValues></_>
    <_>
      <internalNodes>
        0 -1 1346267 -4.1039648931473494e-04</internalNodes>
      <leafValues>
        4.5019111037254333e-01 -2.0878407359123230e-01</leafValues></_>
    <_>
      <internalNodes>
        0 -1 1727880 4.2523872107267380e-03</internalNodes>
      <leafValues>
        -2.7966666221618652e-01 3.1341648101806641e-01</leafValues></_>
    <_>
      <internalNodes>
        0 -1 970100 -9.6314549446105957e-03</internalNodes>
      <leafValues>
        5.1765805482864380e-01 -1.8131656944751740e-01</leafValues></_>
    <_>
      <internalNodes>
        0 -1 1238058 -3.9508268237113953e-03</internalNodes>
      <leafValues>
        8.3766037225723267e-01 -9.1259948909282684e-02</leafValues></_>
    <_>
      <internalNodes>
        0 -1 1961297 5.9511381550692022e-05</internalNodes>
      <leafValues>
        2.0771203935146332e-01 -4.6692574024200439e-01</leafValues></_>
    <_>
      <internalNodes>
        0 -1 1925685 2.7793593704700470e-02</internalNodes>
      <leafValues>
        -1.5373492240905762e-01 5.8503675460815430e-01</leafValues></_></weakClassifiers></stage1>
</opencv_storage>
